digraph Tree {
node [shape=box] ;
0 [label="SP_DIABETES <= 0.5\ngini = 0.422\nsamples = 2210007\nvalue = [1542259, 667748]\nclass = y[0]"] ;
1 [label="SP_ISCHMCHT <= 0.5\ngini = 0.306\nsamples = 1256028\nvalue = [1019050, 236978]\nclass = y[0]"] ;
0 -> 1 [labeldistance=2.5, labelangle=45, headlabel="True"] ;
2 [label="SP_ALZHDMTA <= 0.5\ngini = 0.223\nsamples = 913044\nvalue = [796147, 116897]\nclass = y[0]"] ;
1 -> 2 ;
3 [label="SP_CHF <= 0.5\ngini = 0.195\nsamples = 851296\nvalue = [757977, 93319]\nclass = y[0]"] ;
2 -> 3 ;
4 [label="SP_OSTEOPRS <= 0.5\ngini = 0.173\nsamples = 794398\nvalue = [718517, 75881]\nclass = y[0]"] ;
3 -> 4 ;
5 [label="gini = 0.158\nsamples = 753460\nvalue = [688448, 65012]\nclass = y[0]"] ;
4 -> 5 ;
6 [label="gini = 0.39\nsamples = 40938\nvalue = [30069, 10869]\nclass = y[0]"] ;
4 -> 6 ;
7 [label="SP_COPD <= 0.5\ngini = 0.425\nsamples = 56898\nvalue = [39460, 17438]\nclass = y[0]"] ;
3 -> 7 ;
8 [label="gini = 0.417\nsamples = 50866\nvalue = [35768, 15098]\nclass = y[0]"] ;
7 -> 8 ;
9 [label="gini = 0.475\nsamples = 6032\nvalue = [3692, 2340]\nclass = y[0]"] ;
7 -> 9 ;
10 [label="SP_CHF <= 0.5\ngini = 0.472\nsamples = 61748\nvalue = [38170, 23578]\nclass = y[0]"] ;
2 -> 10 ;
11 [label="SP_RA_OA <= 0.5\ngini = 0.464\nsamples = 45050\nvalue = [28542, 16508]\nclass = y[0]"] ;
10 -> 11 ;
12 [label="gini = 0.461\nsamples = 40136\nvalue = [25685, 14451]\nclass = y[0]"] ;
11 -> 12 ;
13 [label="gini = 0.487\nsamples = 4914\nvalue = [2857, 2057]\nclass = y[0]"] ;
11 -> 13 ;
14 [label="SP_COPD <= 0.5\ngini = 0.488\nsamples = 16698\nvalue = [9628, 7070]\nclass = y[0]"] ;
10 -> 14 ;
15 [label="gini = 0.485\nsamples = 13893\nvalue = [8136, 5757]\nclass = y[0]"] ;
14 -> 15 ;
16 [label="gini = 0.498\nsamples = 2805\nvalue = [1492, 1313]\nclass = y[0]"] ;
14 -> 16 ;
17 [label="SP_ALZHDMTA <= 0.5\ngini = 0.455\nsamples = 342984\nvalue = [222903, 120081]\nclass = y[0]"] ;
1 -> 17 ;
18 [label="SP_CHF <= 0.5\ngini = 0.435\nsamples = 258272\nvalue = [175595, 82677]\nclass = y[0]"] ;
17 -> 18 ;
19 [label="SP_RA_OA <= 0.5\ngini = 0.418\nsamples = 167800\nvalue = [117968, 49832]\nclass = y[0]"] ;
18 -> 19 ;
20 [label="gini = 0.409\nsamples = 143802\nvalue = [102601, 41201]\nclass = y[0]"] ;
19 -> 20 ;
21 [label="gini = 0.461\nsamples = 23998\nvalue = [15367, 8631]\nclass = y[0]"] ;
19 -> 21 ;
22 [label="SP_CHRNKIDN <= 0.5\ngini = 0.462\nsamples = 90472\nvalue = [57627, 32845]\nclass = y[0]"] ;
18 -> 22 ;
23 [label="gini = 0.454\nsamples = 70549\nvalue = [45927, 24622]\nclass = y[0]"] ;
22 -> 23 ;
24 [label="gini = 0.485\nsamples = 19923\nvalue = [11700, 8223]\nclass = y[0]"] ;
22 -> 24 ;
25 [label="SP_COPD <= 0.5\ngini = 0.493\nsamples = 84712\nvalue = [47308, 37404]\nclass = y[0]"] ;
17 -> 25 ;
26 [label="SP_CHRNKIDN <= 0.5\ngini = 0.489\nsamples = 65124\nvalue = [37301, 27823]\nclass = y[0]"] ;
25 -> 26 ;
27 [label="gini = 0.486\nsamples = 52294\nvalue = [30517, 21777]\nclass = y[0]"] ;
26 -> 27 ;
28 [label="gini = 0.498\nsamples = 12830\nvalue = [6784, 6046]\nclass = y[0]"] ;
26 -> 28 ;
29 [label="SP_RA_OA <= 0.5\ngini = 0.5\nsamples = 19588\nvalue = [10007, 9581]\nclass = y[0]"] ;
25 -> 29 ;
30 [label="gini = 0.499\nsamples = 14329\nvalue = [7507, 6822]\nclass = y[0]"] ;
29 -> 30 ;
31 [label="gini = 0.499\nsamples = 5259\nvalue = [2500, 2759]\nclass = y[1]"] ;
29 -> 31 ;
32 [label="SP_ALZHDMTA <= 0.5\ngini = 0.495\nsamples = 953979\nvalue = [523209, 430770]\nclass = y[0]"] ;
0 -> 32 [labeldistance=2.5, labelangle=-45, headlabel="False"] ;
33 [label="SP_COPD <= 0.5\ngini = 0.482\nsamples = 595263\nvalue = [354200, 241063]\nclass = y[0]"] ;
32 -> 33 ;
34 [label="SP_CHRNKIDN <= 0.5\ngini = 0.472\nsamples = 460200\nvalue = [284543, 175657]\nclass = y[0]"] ;
33 -> 34 ;
35 [label="SP_RA_OA <= 0.5\ngini = 0.461\nsamples = 340028\nvalue = [217491, 122537]\nclass = y[0]"] ;
34 -> 35 ;
36 [label="gini = 0.451\nsamples = 263104\nvalue = [172615, 90489]\nclass = y[0]"] ;
35 -> 36 ;
37 [label="gini = 0.486\nsamples = 76924\nvalue = [44876, 32048]\nclass = y[0]"] ;
35 -> 37 ;
38 [label="SP_RA_OA <= 0.5\ngini = 0.493\nsamples = 120172\nvalue = [67052, 53120]\nclass = y[0]"] ;
34 -> 38 ;
39 [label="gini = 0.487\nsamples = 82154\nvalue = [47624, 34530]\nclass = y[0]"] ;
38 -> 39 ;
40 [label="gini = 0.5\nsamples = 38018\nvalue = [19428, 18590]\nclass = y[0]"] ;
38 -> 40 ;
41 [label="SP_CHRNKIDN <= 0.5\ngini = 0.5\nsamples = 135063\nvalue = [69657, 65406]\nclass = y[0]"] ;
33 -> 41 ;
42 [label="SP_RA_OA <= 0.5\ngini = 0.496\nsamples = 69379\nvalue = [37922, 31457]\nclass = y[0]"] ;
41 -> 42 ;
43 [label="gini = 0.491\nsamples = 47723\nvalue = [26988, 20735]\nclass = y[0]"] ;
42 -> 43 ;
44 [label="gini = 0.5\nsamples = 21656\nvalue = [10934, 10722]\nclass = y[0]"] ;
42 -> 44 ;
45 [label="SP_RA_OA <= 0.5\ngini = 0.499\nsamples = 65684\nvalue = [31735, 33949]\nclass = y[1]"] ;
41 -> 45 ;
46 [label="gini = 0.5\nsamples = 39594\nvalue = [20073, 19521]\nclass = y[0]"] ;
45 -> 46 ;
47 [label="gini = 0.494\nsamples = 26090\nvalue = [11662, 14428]\nclass = y[1]"] ;
45 -> 47 ;
48 [label="SP_COPD <= 0.5\ngini = 0.498\nsamples = 358716\nvalue = [169009, 189707]\nclass = y[1]"] ;
32 -> 48 ;
49 [label="SP_CHF <= 0.5\ngini = 0.5\nsamples = 220492\nvalue = [111572, 108920]\nclass = y[0]"] ;
48 -> 49 ;
50 [label="SP_RA_OA <= 0.5\ngini = 0.496\nsamples = 90877\nvalue = [49300, 41577]\nclass = y[0]"] ;
49 -> 50 ;
51 [label="gini = 0.493\nsamples = 66405\nvalue = [37125, 29280]\nclass = y[0]"] ;
50 -> 51 ;
52 [label="gini = 0.5\nsamples = 24472\nvalue = [12175, 12297]\nclass = y[1]"] ;
50 -> 52 ;
53 [label="SP_RA_OA <= 0.5\ngini = 0.499\nsamples = 129615\nvalue = [62272, 67343]\nclass = y[1]"] ;
49 -> 53 ;
54 [label="gini = 0.5\nsamples = 85768\nvalue = [42794, 42974]\nclass = y[1]"] ;
53 -> 54 ;
55 [label="gini = 0.494\nsamples = 43847\nvalue = [19478, 24369]\nclass = y[1]"] ;
53 -> 55 ;
56 [label="SP_CHRNKIDN <= 0.5\ngini = 0.486\nsamples = 138224\nvalue = [57437, 80787]\nclass = y[1]"] ;
48 -> 56 ;
57 [label="SP_ISCHMCHT <= 0.5\ngini = 0.495\nsamples = 50885\nvalue = [22868, 28017]\nclass = y[1]"] ;
56 -> 57 ;
58 [label="gini = 0.5\nsamples = 7802\nvalue = [3868, 3934]\nclass = y[1]"] ;
57 -> 58 ;
59 [label="gini = 0.493\nsamples = 43083\nvalue = [19000, 24083]\nclass = y[1]"] ;
57 -> 59 ;
60 [label="SP_RA_OA <= 0.5\ngini = 0.478\nsamples = 87339\nvalue = [34569, 52770]\nclass = y[1]"] ;
56 -> 60 ;
61 [label="gini = 0.486\nsamples = 49411\nvalue = [20566, 28845]\nclass = y[1]"] ;
60 -> 61 ;
62 [label="gini = 0.466\nsamples = 37928\nvalue = [14003, 23925]\nclass = y[1]"] ;
60 -> 62 ;
}
